0.046190
0.002909
-0.048971
-0.023213
-0.021292
-0.028582
-0.035407
-0.085477
-0.087661
-0.091144
-0.030022
-0.052744
-0.030434
-0.001131
-0.024680
-0.113934
-0.032363
-0.060801
-0.017625
0.028253
-0.053980
-0.014208
0.021888
-0.089139
-0.022480
-0.012028
-0.035672
-0.033963
0.014840
-0.074846
-0.028521
-0.063645
-0.061163
0.001670
0.039123
-0.072406
-0.057476
0.024510
-0.087190
-0.066808
-0.039070
-0.116312
-0.027360
0.001437
-0.033504
0.031199
-0.098887
-0.045499
-0.059144
-0.080241
0.031013
-0.044804
0.033615
0.011600
-0.045139
0.040317
-0.025605
0.002882
-0.028936
-0.059083
-0.073805
0.037734
-0.049792
0.055347
-0.019467
0.010430
0.046628
-0.081279
0.033257
0.007008
-0.019138
-0.004876
-0.049433
-0.042031
-0.026271
-0.097958
0.029060
0.014656
-0.024796
-0.035316
0.022779
-0.034246
0.031599
0.042113
-0.068252
-0.053212
-0.047507
0.051653
0.031171
0.038111
-0.076859
0.032059
-0.094207
-0.028131
-0.012153
-0.136937
-0.050643
-0.056000
-0.069568
-0.052537
-0.026593
-0.018581
-0.008010
-0.054020
0.043292
0.062415
-0.028552
-0.035219
-0.105364
-0.021077
-0.084523
-0.059377
-0.000733
-0.067364
-0.078695
0.027676
0.039355
0.020182
-0.023941
-0.024941
-0.040680
-0.087635
-0.014183
-0.050736
-0.039448
-0.032685
0.054557
-0.026600
-0.036072
-0.059025
-0.059583
0.025620
-0.102336
-0.046614
-0.026170
-0.048572
0.027762
-0.048059
0.018383
0.037471
-0.049218
-0.047759
-0.076035
-0.050260
0.028978
-0.053396
-0.070181
-0.056637
-0.004459
-0.065868
-0.092231
-0.040086
0.034504
-0.026064
-0.031795
-0.014543
0.031249
0.045035
-0.052248
0.035103
-0.039654
-0.035840
-0.032683
-0.036240
-0.079175
-0.074394
-0.036711
-0.023127
-0.043093
-0.095211
-0.137405
0.032427
-0.028630
-0.059512
-0.116179
-0.048688
0.053915
0.062037
0.038462
-0.035189
-0.096731
-0.036251
0.052736
0.057705
-0.043772
-0.034348
-0.000413
-0.053572
-0.042995
-0.090350
-0.073222
-0.041895
-0.038680
0.035945
-0.082090
0.016125
-0.022129
-0.026251
-0.032881
-0.047738
0.030325
0.046185
-0.086163
-0.012483
-0.063626
-0.007416
-0.059379
0.003939
-0.065530
-0.016373
0.036781
-0.078311
-0.077228
0.033402
-0.050197
-0.069734
-0.039390
-0.089932
0.036736
-0.053118
-0.027768
-0.052352
-0.064664
-0.086413
-0.044522
0.022017
0.037458
-0.039904
-0.019145
0.025765
-0.026064
-0.039473
-0.076815
-0.022580
-0.056135
-0.073259
-0.038104
-0.116377
-0.047238
-0.035021
-0.053052
-0.036704
-0.036195
0.003307
-0.011121
-0.007187
-0.108308
-0.045545
0.000946
0.004097
-0.044327
0.037801
-0.026733
0.032275
-0.068033
-0.038553
-0.027283
-0.036523
-0.045392
-0.048919
0.011347
-0.114547
-0.026771
0.048084
-0.141188
-0.049284
0.023087
-0.023514
-0.021274
-0.074327
-0.020898
-0.035852
-0.026721
0.031046
0.009103
0.030208
-0.029823
-0.144201
-0.051213
-0.075552
-0.033843
-0.015185
-0.066558
-0.034143
-0.040636
-0.102853
-0.048577
-0.080522
-0.018772
-0.028932
-0.040079
-0.007271
0.045262
-0.041955
-0.111337
-0.097352
-0.016538
-0.044752
-0.023969
-0.072764
-0.003844
0.036764
-0.013439
-0.054816
-0.011758
-0.042822
0.013627
0.030221
-0.108153
0.008386
-0.024067
-0.062578
-0.099476
-0.071428
-0.036244
-0.002692
-0.107695
-0.038678
0.022668
0.003041
-0.033292
-0.035331
-0.051310
-0.011427
-0.010731
0.035155
-0.059572
0.036801
-0.078782
0.075606
-0.109906
0.011309
-0.084191
-0.037244
-0.040080
0.005963
-0.042668
-0.015411
0.049009
-0.061531
-0.057428
-0.056545
-0.070877
-0.067339
-0.096393
-0.007026
-0.100854
-0.045062
-0.084652
-0.047200
0.036879
0.049532
-0.038668
-0.023947
0.008053
-0.094932
-0.026800
0.032432
0.043572
-0.077623
-0.070048
0.021333
0.014216
-0.091253
-0.043987
-0.025552
-0.031040
0.036445
-0.023309
-0.050909
-0.085987
-0.043787
-0.044123
-0.031488
-0.079510
0.029536
-0.072593
-0.021178
0.040285
-0.025423
-0.031741
0.017644
-0.021834
0.036524
-0.007538
-0.042707
-0.000947
-0.054886
0.010092
-0.017165
-0.083664
-0.020996
-0.047774
0.013830
-0.000970
-0.099060
-0.138587
0.019449
-0.031949
-0.046914
-0.074876
-0.086423
0.028999
-0.036285
-0.044628
-0.058735
-0.063728
0.047349
-0.133701
0.018660
-0.119085
-0.040644
-0.054811
0.026291
0.012309
-0.035380
-0.030350
-0.031540
-0.041696
-0.062547
-0.030962
0.031676
-0.064748
-0.032640
-0.010142
-0.111144
-0.097790
-0.020490
-0.063006
-0.043482
-0.060564
-0.015197
-0.018397
-0.021295
-0.109505
-0.050260
0.017430
0.048035
-0.070659
-0.033995
-0.020115
-0.078010
-0.063627
-0.096432
-0.025739
-0.049085
0.006507
0.037119
-0.030506
-0.018928
-0.032129
-0.024895
-0.075715
-0.085156
-0.054341
-0.102011
-0.030316
0.018423
0.033762
0.004119
-0.068679
-0.024289
0.030913
-0.023723
-0.011736
-0.041463
-0.010117
-0.035175
-0.102034
-0.046624
0.008069
-0.056959
0.014447
-0.116706
-0.060364
-0.064493
-0.125616
0.066654
-0.054022
0.022133
0.028372
0.061839
0.039580
-0.093542
0.081920
-0.051618
-0.045882
-0.089733
0.031412
-0.022034
-0.045960
0.004480
0.026475
-0.058813
0.031911
0.001651
-0.021103
-0.044775
-0.006526
-0.086320
-0.025633
-0.013312
-0.053268
-0.034062
-0.058596
-0.106476
-0.020031
-0.048006
0.000959
-0.077755
0.032492
-0.041982
