-0.039698
-0.086469
-0.029718
-0.015747
-0.043629
-0.037388
0.026297
0.048666
-0.025644
0.033156
-0.042859
-0.051774
-0.036447
-0.024871
-0.008574
-0.054993
-0.080750
0.022412
-0.030661
-0.033657
-0.023080
0.051602
-0.073593
-0.028791
0.022300
-0.039541
-0.071735
-0.113547
-0.077912
-0.112078
0.050758
-0.025426
-0.044786
-0.017021
0.013776
-0.027428
-0.097173
0.056836
-0.082256
0.030237
-0.045896
-0.034607
-0.037794
0.014615
-0.008703
-0.004320
0.043661
0.037051
-0.032163
-0.002599
0.034411
0.020586
-0.007581
0.033740
-0.027146
-0.125703
-0.036524
0.003104
-0.061095
-0.034798
-0.023079
0.033203
0.054856
-0.121391
-0.037410
0.020472
-0.006913
-0.031711
-0.081959
0.012234
-0.042840
0.042976
-0.050863
-0.044350
-0.002033
-0.097671
-0.039079
-0.013184
0.004316
0.036234
-0.020555
0.041858
0.004039
0.025836
0.028190
-0.086588
-0.070111
-0.009953
0.041157
-0.103256
-0.130420
0.048616
-0.027801
0.037291
-0.050134
-0.046505
0.021166
-0.002001
0.040682
-0.075277
0.026106
-0.055067
-0.026955
-0.033496
0.060434
-0.031052
0.074366
0.009018
-0.071100
0.016560
0.025528
0.023556
0.029785
-0.023941
-0.016026
0.034583
-0.019258
-0.005039
0.026755
-0.025647
-0.066112
0.021881
0.004478
0.002806
0.002984
-0.034604
-0.032941
-0.006955
-0.017334
0.015008
-0.077268
0.020367
0.010502
-0.109269
0.026760
-0.037902
-0.043910
-0.041335
-0.022214
0.038491
-0.014067
-0.024423
0.026640
0.053059
-0.090931
-0.021651
-0.017338
-0.019284
-0.026783
0.025361
-0.023971
-0.036127
-0.015972
0.009321
0.048340
-0.029170
-0.042787
0.040876
0.039461
-0.051938
-0.031889
-0.017760
-0.040166
-0.035979
-0.012107
0.044555
0.011852
-0.052416
-0.030416
-0.088572
-0.034608
0.044557
-0.017339
0.037055
-0.022331
-0.008623
-0.045433
-0.026844
-0.020405
0.003451
-0.055438
-0.034402
-0.023718
0.035395
0.000946
0.026285
-0.027760
0.018036
-0.066541
-0.094949
-0.031736
0.029794
-0.029653
0.011700
0.001528
-0.073374
-0.025241
0.029552
-0.109255
-0.029416
-0.002106
-0.041979
-0.009011
-0.092634
-0.084824
-0.046330
-0.091850
0.033662
-0.101092
0.036042
-0.005382
0.043713
-0.106375
-0.132515
-0.038523
-0.033369
-0.021939
-0.030713
-0.031684
0.047577
-0.044258
-0.023482
0.036327
-0.021169
-0.046369
0.048297
0.048940
-0.065071
-0.053955
-0.105699
-0.002445
0.046299
-0.026514
0.050246
-0.035562
-0.024000
-0.054071
-0.017922
-0.043126
0.032505
0.037764
-0.045157
0.022572
-0.013942
0.013613
0.019813
0.050294
0.019552
-0.026483
-0.025421
-0.054137
-0.006766
-0.037130
-0.026952
-0.037475
-0.039978
