0.009433
0.032223
0.110813
-0.035523
0.125440
0.008816
-0.067396
-0.094218
-0.048695
-0.079901
0.119465
-0.053610
-0.060183
-0.061120
-0.027492
0.081086
-0.138716
0.018777
-0.031325
0.024675
0.030485
0.061715
0.059034
-0.077138
-0.051781
-0.066238
0.086896
-0.013007
-0.057299
-0.077087
0.037496
-0.049926
-0.088791
-0.075901
0.012115
-0.030873
0.020033
0.050282
-0.055932
0.049682
-0.025794
-0.097041
-0.020171
0.001184
-0.030094
0.094087
-0.079971
-0.071029
0.094075
-0.106023
-0.074206
0.033841
0.052333
-0.023545
0.016179
-0.045166
-0.033218
-0.016917
-0.026546
-0.017925
0.055930
0.028946
-0.079799
-0.057127
-0.050738
-0.075534
0.100565
0.008469
-0.047253
-0.031508
-0.067053
-0.064439
-0.039319
-0.033682
0.021724
-0.011719
-0.065679
-0.049312
-0.081059
-0.073675
0.080129
-0.004669
-0.049249
-0.022288
-0.058635
-0.055574
-0.079590
0.048709
0.049436
0.009852
-0.083992
-0.034850
-0.067701
0.046143
-0.080322
-0.017807
0.060395
-0.031580
0.152934
-0.061538
-0.057881
-0.067952
-0.103225
-0.007782
-0.019325
-0.069510
0.013935
0.054885
0.079541
-0.070500
0.026292
-0.060130
-0.090638
-0.073957
-0.058059
-0.076888
-0.103277
-0.031508
-0.046620
-0.037636
0.084797
0.064084
0.011086
0.090062
0.047305
-0.091096
-0.017932
-0.048697
0.072787
-0.015316
-0.097644
-0.094930
-0.035237
0.063024
-0.044089
-0.059298
-0.084870
-0.070796
-0.103012
-0.089233
-0.069922
0.056227
-0.105725
-0.045686
-0.058742
-0.086839
0.086005
-0.050256
-0.001740
-0.048490
-0.047721
0.155959
-0.040534
-0.085658
-0.060268
0.117823
-0.004176
0.135367
-0.085454
-0.061891
-0.042528
-0.059903
-0.002927
-0.073496
-0.089086
-0.019111
0.055642
-0.086144
-0.041942
-0.066193
-0.038567
0.006450
0.119231
-0.046751
-0.058954
-0.023921
0.101572
-0.062177
-0.054980
-0.061727
-0.080849
0.035708
-0.080645
0.006240
-0.073623
-0.051208
0.009776
-0.035957
-0.009365
-0.059550
-0.037996
0.089205
-0.054432
-0.027345
0.117745
-0.047591
-0.062559
0.013416
-0.034619
0.108536
0.112223
-0.068884
-0.069610
-0.095079
0.035312
0.004674
-0.049667
0.153364
-0.056370
-0.052717
0.102997
-0.054915
0.049973
-0.056560
-0.036681
-0.063819
-0.043196
-0.058386
-0.022356
-0.071982
-0.058497
-0.053653
-0.061691
-0.071929
-0.076220
0.082766
-0.082480
-0.065055
-0.040413
-0.076007
0.015699
-0.035241
-0.035269
-0.084572
0.083877
-0.051626
0.067819
0.007307
0.126580
-0.005712
-0.012702
-0.046778
0.037566
0.042829
0.162778
-0.049320
-0.064451
-0.086715
-0.109129
-0.097042
-0.059868
-0.074529
-0.059604
-0.080353
-0.066626
-0.046297
-0.089340
-0.094201
0.150086
-0.053717
-0.040551
0.077108
-0.023530
-0.050577
-0.021823
0.137619
-0.048490
0.001054
-0.058767
-0.094570
-0.052632
-0.041490
-0.038191
-0.057873
-0.065924
-0.041603
-0.074112
-0.084546
0.033722
-0.052604
0.062042
0.014161
-0.077408
-0.010128
-0.054252
-0.074650
0.010668
-0.054054
-0.054971
-0.048868
-0.061413
-0.072837
-0.014616
-0.092325
-0.066719
-0.115750
-0.020812
-0.067228
0.064367
-0.033129
-0.041750
-0.034394
0.049826
-0.057800
0.029719
-0.056804
-0.086194
0.121412
-0.051843
-0.084282
-0.014243
-0.022334
-0.033047
0.062453
0.130164
-0.058508
-0.054383
-0.074682
-0.082180
-0.038780
-0.009300
-0.091393
-0.052559
0.061157
-0.070595
0.004057
-0.067711
-0.075665
-0.092801
0.065938
-0.077483
-0.013029
0.026099
-0.071255
0.149662
-0.037601
0.080018
-0.043561
-0.052144
0.037007
0.078332
-0.043729
-0.073349
-0.088398
-0.032896
-0.097475
0.126128
-0.082092
0.028026
0.011056
-0.050701
0.054511
-0.002927
-0.043963
-0.038645
-0.101295
0.070330
-0.010055
0.084628
0.072190
-0.115784
-0.045808
0.030327
0.000997
-0.035094
0.036417
-0.080462
-0.039772
-0.040065
0.062217
0.037042
0.050087
-0.010227
0.003127
-0.038866
-0.046047
-0.094628
-0.004753
0.096715
-0.040372
-0.019989
-0.040033
-0.083221
0.041158
0.058940
-0.073402
-0.061610
-0.003357
0.009916
0.074299
-0.078235
0.139787
0.044710
-0.085362
0.078374
-0.067107
0.104330
-0.079135
-0.039505
-0.070992
-0.053686
-0.048874
-0.037691
0.102576
0.060947
-0.070519
-0.016746
-0.065226
-0.066162
-0.075442
0.053949
-0.024257
0.036719
-0.039508
-0.101483
-0.097010
-0.056721
-0.047872
0.048861
-0.065796
-0.084033
-0.101566
-0.037110
-0.087895
-0.063467
-0.068898
-0.014453
-0.040447
-0.027180
-0.073477
0.043322
-0.075731
-0.056368
-0.022136
-0.042963
0.012584
0.041139
-0.072836
-0.044967
-0.073403
0.113016
-0.027830
0.057615
0.021697
-0.053703
-0.064493
0.015327
-0.069203
-0.054876
-0.110898
0.058229
-0.066910
-0.049046
0.066854
0.075218
-0.055894
-0.041992
0.000420
0.067012
0.065423
-0.082250
-0.068115
-0.034888
-0.051844
-0.053090
-0.020216
0.078823
-0.060007
-0.023724
0.071959
0.052683
0.023173
-0.074795
0.002834
-0.094216
0.082871
-0.061657
-0.060662
0.039363
-0.080875
-0.044270
-0.065238
-0.070642
-0.085132
-0.040421
-0.067274
-0.012880
0.034906
-0.060651
0.028860
-0.027043
-0.106207
0.091355
-0.020858
-0.081926
-0.063634
-0.083863
0.040372
0.100405
0.043422
-0.054196
-0.111792
-0.095932
0.079717
0.055261
0.092127
-0.100019
-0.019890
-0.086945
-0.070042
0.098143
-0.069865
