-0.033042
-0.001406
-0.031773
-0.030470
-0.112507
-0.007401
-0.162730
-0.028103
-0.072071
-0.021516
-0.078777
-0.042784
-0.047954
-0.106420
-0.054123
-0.061236
-0.141307
0.031434
-0.146326
-0.041146
0.013960
-0.031264
-0.008546
-0.009724
-0.037464
-0.109589
0.016287
-0.178969
-0.005049
-0.035903
-0.009966
-0.173590
0.000000
-0.124979
0.006490
-0.038495
-0.049312
0.023487
-0.058775
-0.067224
-0.032278
-0.163795
-0.005667
-0.091646
-0.016176
-0.006001
0.022583
-0.012066
-0.110199
-0.187014
0.022155
0.009811
-0.063604
0.009958
0.076361
0.014343
-0.134092
0.007653
-0.007192
-0.029773
-0.045007
-0.018003
-0.010856
0.014178
-0.024071
-0.025261
-0.020662
-0.024686
-0.136943
-0.042214
-0.014456
-0.021617
-0.001740
-0.008316
-0.157890
-0.027011
-0.031572
-0.151690
-0.092332
-0.005356
-0.031557
0.010489
-0.010813
0.000000
-0.051989
-0.016676
0.013142
-0.034372
-0.021541
-0.037672
-0.153205
-0.020124
-0.009469
-0.014399
0.021140
-0.064745
-0.016554
-0.054806
-0.007304
0.001706
-0.036974
-0.041603
-0.037751
-0.000750
-0.117843
-0.054781
-0.175126
-0.014406
-0.114041
-0.057360
-0.158756
-0.055521
-0.030476
-0.091659
-0.046436
0.010751
0.009150
-0.020080
0.016806
-0.014289
-0.137124
-0.053955
-0.003919
-0.034460
-0.129318
0.008585
0.046498
0.000000
-0.012272
-0.013407
-0.055320
-0.054493
-0.029609
-0.048331
0.032609
-0.070717
-0.036178
-0.010328
-0.006225
-0.004172
-0.109356
-0.042080
-0.045418
0.015547
-0.175105
-0.050725
-0.052553
-0.019802
-0.032521
-0.184282
-0.068066
-0.142657
-0.046212
-0.019970
0.010787
-0.019659
0.046053
-0.040938
-0.008242
-0.146798
-0.113107
-0.117796
0.022876
0.016730
-0.105025
-0.045426
-0.029046
-0.133928
0.018989
-0.243524
0.023645
-0.144820
-0.034212
0.022605
-0.000347
-0.014431
-0.215262
-0.006399
-0.035732
0.018406
-0.005527
-0.041408
0.020090
-0.030537
-0.055243
-0.048698
-0.013647
-0.027731
-0.036132
-0.123024
-0.052693
0.019881
0.006429
-0.109130
-0.012053
0.005489
-0.189710
-0.018254
0.002570
-0.011788
0.022514
-0.001813
-0.008943
0.005870
-0.040858
-0.024306
-0.020944
-0.111874
-0.037046
-0.020414
0.022444
-0.062067
-0.005076
-0.012851
0.007318
0.010396
-0.005508
-0.079408
0.030009
-0.166782
-0.073021
-0.035684
-0.049919
-0.025856
-0.021429
-0.199843
-0.014520
0.027002
-0.032245
0.014748
-0.056814
-0.002776
-0.106003
-0.030749
-0.021404
-0.021434
-0.018848
0.034020
-0.005928
-0.005154
-0.121452
0.002271
-0.166261
0.020363
-0.044118
0.013008
-0.025491
-0.133458
-0.024794
-0.102667
-0.069540
-0.020844
-0.024318
-0.002180
-0.132162
0.026495
