[-6.43656254e-02 -1.18560292e-01 -2.87484191e-03 -6.93901554e-02
 -9.94699970e-02 -1.38795421e-01  1.84456140e-01 -6.01386912e-02
  5.65334596e-03  1.76831469e-01 -3.58310342e-02 -5.09158382e-03
 -1.24042086e-01  6.66856319e-02 -7.07791671e-02  6.75632711e-03
  9.58252624e-02 -1.25092283e-01 -9.20033008e-02  3.72262904e-04
 -1.24362975e-01 -1.12087123e-01 -1.20592033e-02 -1.57437678e-02
 -1.20277749e-02 -1.32126123e-01 -3.53715569e-02  9.50060133e-03
 -3.46058197e-02  2.36344500e-03 -9.00309533e-02 -7.28977770e-02
 -7.48046115e-03  9.74433497e-02  1.91055343e-01 -4.61675739e-03
 -6.20000996e-02 -9.47439857e-03 -1.04596421e-01  2.27118097e-02
 -5.89942839e-03 -1.25251755e-01  1.46900132e-01 -7.44689954e-03
  7.26896152e-03 -1.18758433e-01 -2.93975379e-02 -9.49264839e-02
 -3.71448025e-02 -4.41721864e-02  4.64689778e-03 -1.31595269e-01
 -3.98949254e-03  9.56594273e-02 -6.90075234e-02 -4.46789991e-03
 -1.46800935e-01 -2.28386163e-03  1.28727790e-03 -1.51483472e-02
 -9.58004892e-02  2.07742691e-01 -8.96008278e-04  6.04657130e-03
  1.54182822e-01 -1.47344068e-01 -7.75666675e-03 -2.28856169e-02
 -1.14892989e-01 -1.13332249e-01 -5.91348391e-04 -7.21057653e-02
  8.64262581e-02 -7.25373253e-02 -6.48959354e-02 -1.06117863e-03
 -6.58811117e-03 -5.81865683e-02  1.79300919e-01 -1.39310196e-01
 -2.66250633e-02  1.74428314e-01  2.35325530e-01  1.11696936e-01
 -1.02442101e-01 -5.61233144e-03 -8.69305730e-02 -2.57046930e-02
 -1.23697184e-01 -7.19554909e-03 -1.06347494e-01  5.21786399e-02
  5.25524520e-05 -1.10366233e-01  1.27645012e-03 -7.55235925e-02
 -8.98596570e-02 -1.12158388e-01 -3.16048565e-04 -1.03590824e-01
 -3.11565329e-03 -5.96955828e-02  1.88132375e-03 -1.74462143e-02
 -5.53517230e-02  7.70974904e-04 -1.76917776e-01 -2.33011134e-02
 -6.58368617e-02 -3.67109291e-02 -1.31916925e-01 -1.34700492e-01
 -8.20007175e-02 -6.82682963e-03  1.34571612e-01 -1.19640552e-01
  1.16425321e-01 -1.41632676e-01 -3.10238363e-04 -1.25116538e-02
  3.01060034e-03  1.74745575e-01  1.62928000e-01 -8.41741860e-02
 -9.55691189e-02 -1.20810837e-01 -1.28075229e-02 -1.50310202e-02
 -6.69559091e-02 -1.33097142e-01 -4.66890214e-03 -1.07294232e-01
 -2.16184766e-03 -1.13349885e-01 -7.41244480e-02  2.01337948e-01
 -2.16048956e-02 -1.16531990e-01 -8.66232067e-02  6.19778782e-02
 -1.22406967e-02 -1.17572183e-02 -1.05127223e-01 -1.14177978e-02
 -3.45614515e-02 -1.17978767e-01 -5.53328358e-02 -1.65163307e-03
 -5.17324451e-03 -1.06108770e-01  7.45670171e-04 -2.13788543e-03
 -3.78142227e-03 -3.10145551e-03 -4.68793251e-02 -8.30655396e-02
 -9.92912613e-03 -1.17446780e-01  4.91387993e-02 -1.95942540e-03
  1.26526528e-03  1.77603401e-03 -6.58889022e-03 -1.69866551e-02
 -1.20663039e-01 -2.54667713e-03 -1.68098719e-03  1.40001521e-01
  1.56181131e-03 -6.79583699e-02 -1.05725445e-01 -2.40529906e-02
 -6.70214533e-04 -1.07652377e-02  1.97269171e-01  4.28222194e-02
 -4.38271351e-02  1.42396361e-01 -4.22509527e-03 -3.97957005e-02
 -1.18518375e-01 -1.07296519e-01 -1.23815872e-01  7.88077191e-02
 -1.10588923e-01 -1.77553713e-01 -9.30844173e-02 -7.83248979e-04
 -1.60744991e-02 -2.47931965e-02 -3.33221210e-03  1.31388426e-01
  1.24112051e-03 -1.82286166e-02 -1.23302177e-01 -2.19135005e-02
 -6.31756335e-03 -1.47787452e-01 -1.32174268e-01 -4.46651317e-02
 -4.96819103e-03  1.52423620e-01 -1.27164321e-02 -2.02856888e-03
 -1.65502727e-02 -6.40410036e-02 -1.43171802e-01 -3.10816206e-02
  2.17050880e-01 -2.09377222e-02 -9.70004685e-03  2.12939084e-01
  1.23114453e-03 -8.94056261e-02 -4.46545333e-03 -1.56401753e-01
 -3.79006146e-03  2.06118122e-01 -2.55737323e-02 -1.31667495e-01
 -6.40420569e-03  1.70769077e-03 -6.24871291e-02 -1.09272646e-02
  2.10668636e-03  2.62105581e-03 -7.30323186e-03  1.28231919e-03
 -7.10848602e-04 -1.55612573e-01 -6.93250075e-03 -5.10017015e-03
  3.40056829e-02 -6.06840523e-03  1.31499201e-01 -1.68960869e-01
  1.18705973e-01  2.23789871e-01  3.22402135e-04  7.46156350e-02
  7.63995051e-02  1.36800438e-01 -9.08438768e-03 -9.79572460e-02
 -1.57571688e-01 -6.69837072e-02 -1.01789415e-01 -6.10557459e-02
  2.07143322e-01  8.97568243e-04  4.55044918e-02  7.19253207e-04
 -8.19328427e-02 -5.80171635e-03  1.34967461e-01  3.95220146e-03]