0.117584
-0.121829
-0.051022
-0.088923
0.016321
0.067519
0.180965
0.165711
-0.003048
-0.035185
0.073405
-0.037640
0.159884
0.207482
-0.088639
-0.034863
0.011960
-0.099563
0.169378
-0.099324
0.028584
0.119989
0.077443
-0.056971
0.040594
0.078547
0.062226
-0.011783
0.000889
0.149864
-0.070659
-0.064252
0.157532
-0.086406
-0.044731
0.148998
-0.057934
-0.023545
0.030766
-0.057282
0.150754
0.137728
0.059167
-0.022480
-0.047290
-0.067901
0.044662
-0.063734
-0.075247
-0.065829
0.034997
0.005865
0.007191
0.030343
0.153538
0.038326
-0.065380
-0.067442
0.074744
-0.123569
-0.076150
0.117453
0.080344
-0.070058
-0.027323
0.053160
0.049786
0.106327
0.059031
-0.030455
-0.037925
-0.078051
-0.043597
0.167210
-0.060097
-0.002529
-0.063974
0.026524
0.039474
0.030905
0.012538
-0.015110
-0.027885
0.004739
0.050896
-0.038864
0.056176
-0.092521
-0.052598
-0.029978
-0.030449
0.065062
-0.015287
-0.076359
0.152902
-0.022503
-0.122199
-0.045843
-0.050167
-0.053379
-0.079697
0.051263
-0.048149
-0.057036
0.114097
0.076004
-0.003276
-0.092914
-0.066334
0.002987
-0.071168
-0.085294
-0.055850
-0.023920
0.095689
0.162362
0.020719
0.120407
0.114015
0.001948
-0.008857
-0.053357
-0.019642
-0.027624
-0.033353
0.134089
0.039319
0.024973
0.056107
-0.039112
-0.026081
0.191294
-0.125300
0.142715
-0.047599
0.111713
-0.013061
-0.094994
-0.077614
-0.055433
0.005806
-0.066879
0.023070
0.122836
-0.065017
-0.024077
-0.087423
-0.053116
-0.042970
-0.091332
0.029252
-0.073042
0.144809
0.091657
-0.081515
-0.115451
-0.033019
0.036142
0.126752
-0.008320
0.000238
-0.081617
-0.008891
-0.045071
-0.130534
-0.078074
-0.039574
-0.046408
-0.025593
-0.081557
0.017370
-0.116919
0.016938
-0.013398
-0.048282
-0.058655
-0.058039
-0.095295
0.087543
-0.104031
-0.006157
-0.056898
0.122416
0.149526
-0.039270
-0.035289
-0.057867
0.019491
-0.068854
-0.081782
0.034508
0.044563
-0.011166
0.011855
0.114725
0.045341
-0.039427
-0.051749
0.074736
0.036082
-0.048850
0.130250
-0.083897
-0.019235
-0.014931
0.149552
-0.054617
-0.084349
-0.034186
-0.118377
-0.044438
0.111817
0.076803
-0.019268
0.065264
-0.058463
-0.111167
-0.056926
-0.106536
0.027011
-0.102238
-0.057040
-0.125282
-0.049754
-0.089158
0.084903
-0.037225
-0.008867
-0.048934
0.032250
0.164489
-0.020515
-0.006931
-0.027925
-0.063234
-0.076462
0.088668
0.066790
-0.083754
0.162025
-0.114721
0.074639
0.076875
-0.021197
-0.038357
0.067430
-0.055947
-0.067211
-0.079195
0.143568
0.164405
-0.059836
-0.080414
0.005118
0.081441
-0.027192
