[-1.99266206e-02  1.18826456e-01  1.78818122e-01  6.97210878e-02
  8.74567032e-02 -4.91919033e-02  4.85763885e-02  6.65930435e-02
  2.52680816e-02 -3.01180184e-02 -8.97565037e-02 -7.34757781e-02
  5.87766171e-02 -1.71988551e-03 -9.08802450e-02  1.44613847e-01
 -9.32583772e-03  1.67298242e-01  1.39944866e-01  3.27264145e-02
  5.51492255e-03  6.81907907e-02 -2.42065378e-02 -7.35177333e-03
 -5.29159456e-02  2.12761965e-02  1.25130057e-01 -1.13640644e-01
 -2.43169013e-02  2.32093576e-02 -1.52299274e-02  1.47998065e-01
  1.75397813e-01  1.25965223e-01  1.16493583e-01  4.46446706e-03
  1.57949612e-01 -1.29586980e-02 -3.20058428e-02  1.11902719e-02
 -6.12101331e-02  1.32240495e-02  1.95300460e-01 -2.67555267e-02
 -8.72592628e-02  7.99021218e-03 -9.84593853e-02  2.95026638e-02
 -6.05042614e-02 -1.56292431e-02  7.03642815e-02 -3.83594073e-02
  1.61884949e-01 -2.29181275e-02  1.17312446e-01 -5.49764000e-02
  1.46844573e-02  7.91884065e-02  8.54638740e-02 -1.07870199e-01
 -2.54208706e-02  7.99692273e-02  1.80960931e-02  5.74234091e-02
  9.52169746e-02 -9.19456929e-02  1.67562798e-01 -1.03678972e-01
  1.14933938e-01 -5.43766133e-02  9.86292660e-02 -7.72352815e-02
 -3.16296169e-03  1.40375972e-01  1.24431632e-01  1.31053418e-01
  1.67809352e-01  1.00770645e-01  4.83470765e-04 -7.47546405e-02
 -1.34806866e-02 -4.46004048e-03  1.01457439e-01 -5.81040718e-02
  1.13084592e-01  1.38112187e-01 -4.46190089e-02  1.58200543e-02
  1.06722973e-01 -1.03740342e-01 -1.07471636e-02  1.07935473e-01
 -7.13410378e-02  4.38256115e-02 -1.39346987e-01 -6.04908988e-02
  1.72734216e-01 -1.14820793e-01  1.62967473e-01  9.12905112e-02
 -8.18138868e-02  3.52614522e-02  9.71469581e-02 -1.01930993e-02
  4.29013260e-02  1.37992591e-01  1.37536705e-01  1.15215592e-02
  2.80679781e-02 -3.51349525e-02  1.24686137e-01  1.06948689e-01
  2.47370899e-02  1.08772703e-01  1.62725464e-01 -3.98055539e-02
  1.07145049e-01  1.13954201e-01  1.12578429e-01  1.56174332e-01
  1.59110859e-01 -8.45205337e-02  5.45165613e-02  4.56821173e-02
  1.58871517e-01  5.24435639e-02  8.62587169e-02 -2.33103111e-02
  8.59345794e-02 -3.27851363e-02  1.41521379e-01  1.51650220e-01
  4.86110477e-03 -7.99540952e-02 -5.63078783e-02  4.25045714e-02
 -2.35248748e-02  1.00196421e-01  8.25918391e-02  8.07358101e-02
  7.09066167e-02 -1.03323117e-01  1.21832557e-01 -1.06496409e-01
 -1.30129093e-02 -1.19956300e-01  1.67303726e-01 -2.50556804e-02
  6.57562241e-02  4.56896499e-02  1.45951048e-01 -5.27671799e-02
  9.45176706e-02 -3.78962234e-02  8.95769615e-03 -1.63854677e-02
  5.97523861e-02 -3.46134752e-02 -4.10284698e-02  8.20907503e-02
 -5.31567037e-02 -7.73947313e-02 -7.93869607e-03  5.10260388e-02
 -1.54348174e-02  4.82527651e-02  1.69874579e-01 -1.05066247e-01
 -3.29496637e-02  4.95443568e-02  1.43350381e-03  1.24349803e-01
 -6.96219131e-02 -1.21845007e-01 -3.33218127e-02 -9.16328132e-02
 -1.03561692e-01 -3.05795372e-02  2.65644155e-02  3.00943642e-03
  1.25016496e-01 -8.53188615e-03 -3.12438793e-02  9.78273246e-03
  1.45901446e-04 -1.09842546e-01  1.42227560e-01  4.68010195e-02
  4.36095260e-02 -1.24512808e-02  1.72454804e-01 -5.40373884e-02
  4.02052850e-02 -1.03038540e-02  1.76211800e-02  1.01220123e-01
 -3.03550791e-02  4.84080128e-02  4.24790382e-02 -5.86840920e-02
  1.42184988e-01 -2.85272133e-02 -3.53249279e-03  9.87648219e-02
  1.03941314e-01  1.37657866e-01  5.19613829e-03  1.47216180e-02
  2.04272904e-02  2.91683599e-02  1.10985413e-01 -2.01383494e-02
 -1.94253828e-02  4.06506993e-02  2.42109075e-02  1.17834426e-01
  2.51893010e-02  2.15494633e-02 -1.05898585e-02  1.42113298e-01
  6.58541620e-02  3.74792819e-03  6.89059645e-02 -1.12706386e-01
  2.03915872e-02  9.34100151e-03 -9.50892866e-02 -2.48087533e-02
  2.56536365e-03  5.48077524e-02 -6.58090413e-02  1.88414697e-02
 -6.14422858e-02 -1.55470092e-02  1.28450707e-01  5.89032620e-02
  9.33033973e-02 -9.31601748e-02  1.03132665e-01  5.42208925e-02
 -1.10390440e-01 -1.87949706e-02  8.52577090e-02 -4.74201553e-02
  9.41642746e-02 -2.82859560e-02 -1.19041339e-01  9.63354409e-02
 -9.76003706e-03  1.38721004e-01 -2.12522708e-02 -8.01793858e-02
 -6.22939542e-02  1.58798054e-01  4.26790752e-02 -7.72206485e-02]